{
    "testsQuantity": 350000,
    "layersQuantity": 3,
    "neuronsInLayers": [
        25,
        17,
        10
    ],
    "layerWeights": [
        null,
        [
            [
                0.8567098148159981,
                1.399601795099282,
                1.6412625789832453,
                1.4550444069370074,
                0.5722854816769317,
                0.7350775055501334,
                -0.4946285338281296,
                -1.1954188872074965,
                -0.22653876020625732,
                -0.3160765797052065,
                -0.11628452111584604,
                -1.7868502094629377,
                -2.472956791850907,
                1.828623816337145,
                -0.8418464181643508,
                0.5566795269174878,
                0.22875225813600747,
                -0.6635739834090391,
                -0.5993842102092003,
                0.3597993089615485,
                1.7300133103656563,
                1.9825590085357565,
                1.8109158341830376,
                -0.39763940289104605,
                -0.05182367832661802
            ],
            [
                -0.9886564221860643,
                -1.325391154693678,
                -1.978151803214714,
                -0.6886215698414294,
                -0.6045132646991562,
                1.9376366378243988,
                1.152147119425886,
                -0.16199521939923112,
                -0.6987971636683273,
                -0.528834650975953,
                1.2561943084013203,
                -0.29678117614162824,
                0.3392903407742108,
                0.8592315173695386,
                -0.11230349804180237,
                4.982313522959908,
                4.505022295076671,
                3.2007360174130177,
                3.1578448574401876,
                3.020825917777476,
                -1.3240810772163822,
                -0.32449355754424936,
                -1.92494269723304,
                0.020901841205060886,
                0.3402212958076205
            ],
            [
                0.7358088928573143,
                0.33373577189662457,
                1.0420676405895897,
                0.5513074128484867,
                0.39069560276009163,
                0.4315554147355322,
                -0.22655573143127722,
                -2.2376722521737205,
                -2.97904971273245,
                -3.189657488529012,
                -1.3361651662860994,
                1.5375217261203125,
                -0.09976636570480767,
                1.1209500296354262,
                -0.4326359647309954,
                -0.636610309193844,
                -0.61357282416306,
                0.5421333368008113,
                1.2905203615208098,
                2.4820840565299687,
                0.40738427117120474,
                -1.9170050486777315,
                -1.0065686395136064,
                -2.0075205245868895,
                0.5287762434949345
            ],
            [
                0.28956187451260934,
                -0.5447332436334069,
                -2.630032319600593,
                -0.547674789933859,
                -0.024434822579302972,
                -0.18380875904872074,
                0.4470178584660229,
                -2.0645380837911196,
                -0.7447192890648133,
                -0.5510364224728399,
                0.5307507767403198,
                0.6167234997204171,
                -5.5858397803623525,
                1.7851773748943485,
                1.1022315540995142,
                -1.2107993875407141,
                0.7875587366739102,
                -0.8843559068852865,
                0.7092213387594009,
                0.5815773031519991,
                0.5075769031171375,
                1.6992115515256787,
                -0.10582079550050924,
                0.41989546392692534,
                -0.07515392538350787
            ],
            [
                0.641649800267295,
                0.8992981232667883,
                1.2140697155562763,
                0.04765966050723892,
                -0.5170983583220259,
                1.2994826631663976,
                2.6834961009501,
                4.020496442689953,
                2.86865946704364,
                2.277824738040089,
                2.6886927417406192,
                0.42329944995054425,
                -2.057929495624645,
                -0.57196329879516,
                1.625657899839893,
                -2.2549709078616678,
                -2.0701947584043827,
                -2.113121026007442,
                -1.2138327677353404,
                -2.557045600591315,
                -1.5740487903336995,
                -1.3749468179919926,
                -1.0244831264259515,
                0.01705453561521498,
                -0.13948380649108094
            ],
            [
                1.022647443777766,
                1.154744885776335,
                1.100964258648232,
                0.511384710490107,
                -0.03383228043894619,
                1.1093893838171962,
                0.6907584946275519,
                1.0231883015503171,
                1.4405461956438403,
                1.211489697750077,
                -1.6294311432511699,
                -0.9275939153485298,
                -2.2563882272861915,
                -1.0822152349618264,
                -0.2470670065364954,
                -2.477367648973505,
                -1.5488976738128943,
                -0.6657132054351055,
                0.3410169146976573,
                0.9405399851590095,
                0.7209029117398547,
                1.0712756097244145,
                1.4499334880486636,
                -0.13438466286339776,
                -0.08889301907009586
            ],
            [
                0.5534153580761014,
                0.9965480706676425,
                0.8546803355918865,
                0.7915197738977862,
                0.4440529995145757,
                2.694835596309351,
                2.2423056565484094,
                1.207670725027437,
                0.633089595607059,
                0.2435102400953723,
                0.3997932689042515,
                0.8585635911617583,
                0.4558294410639114,
                0.5146843126373013,
                -0.7241759078759118,
                0.3828088774442645,
                0.6855596764510821,
                0.44123040003390135,
                0.6368388181097058,
                0.7465863277661191,
                -0.9173226097815154,
                -1.1680665570008755,
                -0.5961313593695465,
                -0.17083786577617446,
                0.6758432928987284
            ],
            [
                1.5967659383901078,
                0.7325838792056182,
                0.6202362743586328,
                -0.24155113352825322,
                -0.007162689938570898,
                2.17182201864637,
                0.8193045495569186,
                0.15689632195910364,
                1.195233688305552,
                0.47266831346738836,
                1.887022216284842,
                -4.681872141124434,
                0.19346971846731612,
                -4.0243030200254175,
                1.2642753773322728,
                0.7769802389871207,
                -0.10114039948037142,
                1.1754688405729086,
                0.2322823092704686,
                0.8858867272664465,
                -1.0989340872958024,
                -4.017536427784058,
                -3.419259326922791,
                -1.416862473131829,
                0.43829680798217363
            ],
            [
                -0.4453283073161167,
                -0.9256766780444459,
                -0.7429026055614139,
                -0.6934357589131865,
                0.21932315718680362,
                1.1772186319372726,
                -1.0645831677011082,
                -0.5954829872179757,
                -1.6319893808335633,
                -0.6997845872528287,
                -1.1792277750861981,
                1.5665933121902693,
                0.7731924885181989,
                1.88756051202653,
                -0.9771414454915999,
                -0.25675205217260855,
                -1.274611236361546,
                0.26018442451769863,
                0.9387244343580299,
                2.4775666557926996,
                0.8085664334938949,
                0.4868008507599163,
                0.30334847181844266,
                -0.8615285536717481,
                0.12109801741292571
            ],
            [
                -0.25307857639558745,
                -0.17510637899877662,
                -0.5805435702396511,
                -1.127012018756875,
                -0.20192025452612586,
                -3.314241945934026,
                -2.047152239292896,
                -1.177699402690511,
                -0.5707213415095039,
                -0.7224300306911888,
                -1.1903412191486875,
                -2.1447950729659406,
                -1.515166284665777,
                -1.7790289322501633,
                1.4862373405317357,
                2.647234459084434,
                3.2826140881854053,
                1.9833414905675055,
                0.7495050592338391,
                -0.1822777596007196,
                0.5135048245990017,
                2.365480259430481,
                1.8840278918337219,
                1.4264841456032287,
                -0.24498658217802477
            ],
            [
                -0.08657989467317886,
                0.3232839841527331,
                0.4888758590203891,
                -0.04062446153409883,
                -0.06594488042580232,
                -2.0541090927962475,
                -2.2241243064067286,
                -3.4601239492772797,
                -3.837975294348328,
                -5.081011569183201,
                0.624629873651059,
                -1.7620388818499,
                -0.40651102164041936,
                1.9720112237318663,
                0.03346430361540129,
                0.46549649172104846,
                0.794777579753657,
                1.030286943591784,
                0.5211685591818052,
                0.25993676515803216,
                0.6795670419441668,
                -0.08491998917299255,
                0.9180368427684035,
                -0.3309584123171264,
                -0.2085484129569219
            ],
            [
                0.7035704509105691,
                0.16467816742215663,
                -0.994729702062763,
                -0.10985671177138899,
                -0.1120443407802498,
                1.5622108303625089,
                1.5412935376271464,
                3.52115204659242,
                3.7183996767100496,
                3.9257595394578235,
                -1.1612471918091836,
                -1.7789786914834427,
                -2.664147264064289,
                -1.5510560601088326,
                -0.2922100918634419,
                0.5972883583934352,
                0.11478722863080197,
                1.1677891928796607,
                0.9818301112996813,
                1.134153363596469,
                0.25633109166853985,
                2.7539178010639587,
                0.4421614400491258,
                1.4199998312988702,
                -0.5556637247009489
            ],
            [
                -1.755566163097384,
                -2.5571071906855574,
                -1.681640760467949,
                -0.7360662086056668,
                0.4736574295838369,
                0.37539488631762874,
                1.7447154166429633,
                -0.5127013110282532,
                -0.6669004390050356,
                -0.6120055794160953,
                2.1687425658538237,
                2.078643873881717,
                4.532572236262124,
                0.6214250371476503,
                0.06323036749858255,
                -0.7271329279928168,
                0.5801108065727345,
                -1.8877916031257076,
                -0.32094185440585016,
                -1.3605434121197373,
                -0.10452388160351057,
                -0.40359461534650837,
                -0.07828374156523583,
                -0.6055749970860624,
                0.5176569887582131
            ],
            [
                1.3136882336574236,
                1.208380820392274,
                0.7870243191703139,
                0.13233094139957907,
                0.20970117234709712,
                0.4356777206621101,
                0.49367286632560375,
                1.0826295417970886,
                1.576444932191237,
                1.4756380954205106,
                -0.0753983254936753,
                0.8338022446704662,
                0.13410800059105452,
                -0.04262832670657685,
                0.40207900012962927,
                -0.19023772800101676,
                -0.11076988408027974,
                -0.44644438808256426,
                -0.1456194603412243,
                -0.2583839522662824,
                -0.3478737883524755,
                -0.25953762157020915,
                -0.3395940863960575,
                0.4611748241162867,
                0.512951578314383
            ],
            [
                -0.6933691330929493,
                -1.165905295099773,
                -1.2781949922084666,
                -0.43268594010063827,
                0.47161159457869023,
                -1.6433851976412028,
                -0.3552869534012419,
                -0.6746064401939301,
                0.21280745625932185,
                0.800477662442684,
                1.4587447613116638,
                0.6393112741694081,
                0.009661308660971228,
                0.07620636989895282,
                0.4109791464030411,
                5.100817863489,
                4.219812968473621,
                2.400165104451591,
                -0.6334025988031402,
                -1.9877445910514226,
                -0.6203965193945498,
                -0.06493589339840838,
                -0.39868473912549807,
                0.9703105387309596,
                0.47567466852621565
            ],
            [
                0.11159178549957069,
                -0.5648587121746188,
                0.04828746144120425,
                0.6565928477698357,
                -0.23796033212758336,
                -0.2082183913494668,
                1.7172851440199888,
                -0.3626227124842525,
                0.1957260225285595,
                -0.5404074619501306,
                -1.5526435742960778,
                -1.6127760395155992,
                -0.3897542681833512,
                -1.5440821101269624,
                -1.2470448992006327,
                -1.6290644128143477,
                -1.2742201203714763,
                -0.6181055624226945,
                0.5343779474746214,
                -0.12072452714669372,
                -0.5226627718446649,
                -1.7348771945868888,
                -1.7390011325467585,
                -2.1604569610677995,
                -0.2733511504006621
            ],
            [
                0.618168652956479,
                -0.29433798613351453,
                -1.023951393728385,
                -0.9759384111370375,
                0.46121095941316925,
                -0.9888209894757036,
                -1.0333137743185692,
                -0.6082519668956151,
                0.1629405560245743,
                1.0035028394758434,
                0.07956122933130043,
                1.4774423874855231,
                1.5246832739109941,
                1.215007714246714,
                0.5599416842384289,
                -3.025299039151751,
                -3.6590574147112425,
                -3.6679436338312965,
                -2.016248577473964,
                -1.4095571126257682,
                1.2074234220918592,
                1.3067530444664461,
                0.8032324687984699,
                -0.30387063473164844,
                0.25657767185305375
            ]
        ],
        [
            [
                -3.470131161248863,
                2.299531214955862,
                -4.976064702695782,
                4.322752897931804,
                2.5228009572074552,
                -1.2659770768331535,
                0.25671750312964164,
                4.679884069673011,
                -3.4368357176917916,
                2.0299552724362577,
                -1.3357848392523393,
                2.8338920031409796,
                -3.6702583142169276,
                -0.02511373117023744,
                2.1391917740624877,
                -5.440104455576278,
                -4.493885630693436
            ],
            [
                -2.7035365334166443,
                1.3468328242695629,
                -1.423744770015387,
                4.3040281565406175,
                -2.81188216394657,
                -3.1165836885695954,
                -4.276799588338927,
                1.2829289564334423,
                -0.6361033846896016,
                0.2215755617429779,
                0.9601171879019632,
                -0.4027301209773764,
                0.6125918460001061,
                -4.5073643102544745,
                1.3554462565893661,
                5.422656910015986,
                -1.8001102329704863
            ],
            [
                -0.8113593994895884,
                -4.439923925156014,
                -2.893303870307656,
                -1.8954445549005252,
                -0.15336969151693208,
                -2.5803909021505884,
                -2.204933302562216,
                -2.8914605496465122,
                -2.3483762462754454,
                1.655489160120004,
                -0.6292379587785949,
                -2.9043496180666275,
                1.3577862414795145,
                0.3958354206116242,
                5.37612649223451,
                -2.556108511255381,
                2.8753940862647815
            ],
            [
                0.2901549005685674,
                -4.2768799736869045,
                -0.5237708049069385,
                1.8573973258815701,
                -3.0273851969279533,
                2.1832214755887493,
                -4.626643926266771,
                -3.5320592298793723,
                0.34238086185549904,
                3.3697257711095827,
                -0.15339953216500993,
                1.7131426359873325,
                -4.729972826694427,
                -1.0054311304448413,
                -3.563416482723055,
                -0.7438295681779318,
                3.106190251204058
            ],
            [
                -5.1190270028974485,
                1.5594377215975643,
                0.5067217842545102,
                -1.3406898395769848,
                2.1674933354221593,
                -3.0103138208331517,
                0.21126593551319928,
                1.3926486696803753,
                0.16310047394223595,
                -4.965381625899122,
                -2.657754211841592,
                -3.052941587126585,
                2.5553253969678638,
                0.36979573014556844,
                -1.5158917396870595,
                0.8925241828895182,
                1.2043064000239827
            ],
            [
                0.8651619196520957,
                -3.2236696010369843,
                2.98892007405461,
                -1.1794226948448916,
                -2.355017173435239,
                -0.21383690683034332,
                -0.17455269797951625,
                -2.6597703077050703,
                0.9638130712868297,
                -3.645380922406458,
                1.8080698217359708,
                -6.753581532257889,
                1.911968338734117,
                -1.4229025773231616,
                -4.521589774258628,
                -0.5290098509764983,
                2.2414227212282225
            ],
            [
                -0.5969955766764731,
                4.42827385663389,
                2.3680461397852985,
                -2.0334231641033895,
                -5.1045290332320645,
                -3.2718400066111886,
                0.39973671688994356,
                -2.132545899143307,
                1.1208540876073356,
                1.6340787661091014,
                3.352808206354191,
                -3.182552401228717,
                -0.2404990395432868,
                -1.6772434005206271,
                -0.08899039808593846,
                -3.1592061271861183,
                -4.205942320596872
            ],
            [
                0.28449673176087975,
                -2.987070138515856,
                1.5273103353436446,
                -0.4183976528566474,
                1.59866473414557,
                1.4857275363842133,
                0.0035202905123948966,
                3.1120121766102784,
                -3.1385732422549246,
                -2.8074864994759974,
                -0.4104935381099806,
                -1.0595753331779556,
                -5.387395536075269,
                0.5030934063407885,
                -2.923441711756161,
                3.607165986658046,
                -2.951366487679729
            ],
            [
                1.4470112801579815,
                4.594684332586802,
                -2.3710766195445165,
                -7.094168583028635,
                -5.556233758145205,
                -0.1106552725749214,
                1.2217875861375533,
                -7.549673219103776,
                1.2547101464699386,
                -2.116228773304718,
                -7.588679432382488,
                4.453687571502689,
                -1.4265240692233943,
                0.589672965526349,
                2.6201512048887423,
                -1.0127143624574375,
                -2.8885730167493553
            ],
            [
                0.5378345359702139,
                -3.6811977467865775,
                -3.324143052891343,
                -2.5568058975195447,
                3.8264901162157545,
                1.4528111738183458,
                1.134262993389566,
                -3.206188412586677,
                -0.21229270970513026,
                -4.057098592265219,
                -4.615290830331004,
                2.2860073426046665,
                1.8353470244945174,
                0.12055191862307707,
                -3.6340999767806332,
                -4.500667372986745,
                0.6006571118664938
            ]
        ]
    ],
    "layerBias": [
        null,
        [
            -0.9416948170564391,
            -0.5228792003057886,
            1.2574639948006852,
            1.0514877134897789,
            -1.2353432848028083,
            -1.691731097246195,
            -3.6808120075236896,
            1.9399707191143911,
            -0.5224583741852457,
            0.7509980003932446,
            1.7638191557511305,
            -2.5100400702676446,
            0.9164921277438668,
            -2.623660428368398,
            0.15857530705111691,
            5.151818117653937,
            1.3247782172508953
        ],
        [
            -2.9127762985400847,
            0.9635674203360518,
            -1.0965032434622908,
            -0.19282699269227646,
            -1.2472926388178853,
            -0.7316206908002585,
            -2.772397448431223,
            -0.5419887901858547,
            -3.168132403098769,
            -2.130432511036509
        ]
    ]
}