{
    "testsQuantity": 100015,
    "layerWeightsPixels": [
        [
            -0.10508998725322104,
            0.07822718959102869,
            -0.20134017220816894,
            -0.058898093454938925,
            -0.12291019034811419,
            -0.7766469214556557,
            -0.3489733047199479,
            -0.18182456943330633,
            -0.1933599647104864,
            -0.06273082123852308,
            -0.010869949631045433,
            -0.11800957799459402,
            -0.5013991393093549,
            -0.10861161270127147,
            -0.36577904920395665,
            -0.27427084501735804,
            -0.07008252796630225,
            0.3684852263691994,
            0.22112248012196958,
            0.5436464409585449,
            0.7330606001283736,
            0.7734606338780244,
            0.47883270339435735,
            0.21783138103155827,
            -0.14633888033583817
        ],
        [
            -0.10508998725322104,
            0.07822718959102869,
            -0.20134017220816894,
            -0.058898093454938925,
            -0.12291019034811419,
            -0.7766469214556557,
            -0.3489733047199479,
            -0.18182456943330633,
            -0.1933599647104864,
            -0.06273082123852308,
            -0.010869949631045433,
            -0.11800957799459402,
            -0.5013991393093549,
            -0.10861161270127147,
            -0.36577904920395665,
            -0.27427084501735804,
            -0.07008252796630225,
            0.3684852263691994,
            0.22112248012196958,
            0.5436464409585449,
            0.7330606001283736,
            0.7734606338780244,
            0.47883270339435735,
            0.21783138103155827,
            -0.14633888033583817
        ],
        [
            -0.10508998725322104,
            0.07822718959102869,
            -0.20134017220816894,
            -0.058898093454938925,
            -0.12291019034811419,
            -0.7766469214556557,
            -0.3489733047199479,
            -0.18182456943330633,
            -0.1933599647104864,
            -0.06273082123852308,
            -0.010869949631045433,
            -0.11800957799459402,
            -0.5013991393093549,
            -0.10861161270127147,
            -0.36577904920395665,
            -0.27427084501735804,
            -0.07008252796630225,
            0.3684852263691994,
            0.22112248012196958,
            0.5436464409585449,
            0.7330606001283736,
            0.7734606338780244,
            0.47883270339435735,
            0.21783138103155827,
            -0.14633888033583817
        ],
        [
            -0.10508998725322104,
            0.07822718959102869,
            -0.20134017220816894,
            -0.058898093454938925,
            -0.12291019034811419,
            -0.7766469214556557,
            -0.3489733047199479,
            -0.18182456943330633,
            -0.1933599647104864,
            -0.06273082123852308,
            -0.010869949631045433,
            -0.11800957799459402,
            -0.5013991393093549,
            -0.10861161270127147,
            -0.36577904920395665,
            -0.27427084501735804,
            -0.07008252796630225,
            0.3684852263691994,
            0.22112248012196958,
            0.5436464409585449,
            0.7330606001283736,
            0.7734606338780244,
            0.47883270339435735,
            0.21783138103155827,
            -0.14633888033583817
        ],
        [
            -0.10508998725322104,
            0.07822718959102869,
            -0.20134017220816894,
            -0.058898093454938925,
            -0.12291019034811419,
            -0.7766469214556557,
            -0.3489733047199479,
            -0.18182456943330633,
            -0.1933599647104864,
            -0.06273082123852308,
            -0.010869949631045433,
            -0.11800957799459402,
            -0.5013991393093549,
            -0.10861161270127147,
            -0.36577904920395665,
            -0.27427084501735804,
            -0.07008252796630225,
            0.3684852263691994,
            0.22112248012196958,
            0.5436464409585449,
            0.7330606001283736,
            0.7734606338780244,
            0.47883270339435735,
            0.21783138103155827,
            -0.14633888033583817
        ],
        [
            -0.10508998725322104,
            0.07822718959102869,
            -0.20134017220816894,
            -0.058898093454938925,
            -0.12291019034811419,
            -0.7766469214556557,
            -0.3489733047199479,
            -0.18182456943330633,
            -0.1933599647104864,
            -0.06273082123852308,
            -0.010869949631045433,
            -0.11800957799459402,
            -0.5013991393093549,
            -0.10861161270127147,
            -0.36577904920395665,
            -0.27427084501735804,
            -0.07008252796630225,
            0.3684852263691994,
            0.22112248012196958,
            0.5436464409585449,
            0.7330606001283736,
            0.7734606338780244,
            0.47883270339435735,
            0.21783138103155827,
            -0.14633888033583817
        ],
        [
            -0.10508998725322104,
            0.07822718959102869,
            -0.20134017220816894,
            -0.058898093454938925,
            -0.12291019034811419,
            -0.7766469214556557,
            -0.3489733047199479,
            -0.18182456943330633,
            -0.1933599647104864,
            -0.06273082123852308,
            -0.010869949631045433,
            -0.11800957799459402,
            -0.5013991393093549,
            -0.10861161270127147,
            -0.36577904920395665,
            -0.27427084501735804,
            -0.07008252796630225,
            0.3684852263691994,
            0.22112248012196958,
            0.5436464409585449,
            0.7330606001283736,
            0.7734606338780244,
            0.47883270339435735,
            0.21783138103155827,
            -0.14633888033583817
        ],
        [
            -0.10508998725322104,
            0.07822718959102869,
            -0.20134017220816894,
            -0.058898093454938925,
            -0.12291019034811419,
            -0.7766469214556557,
            -0.3489733047199479,
            -0.18182456943330633,
            -0.1933599647104864,
            -0.06273082123852308,
            -0.010869949631045433,
            -0.11800957799459402,
            -0.5013991393093549,
            -0.10861161270127147,
            -0.36577904920395665,
            -0.27427084501735804,
            -0.07008252796630225,
            0.3684852263691994,
            0.22112248012196958,
            0.5436464409585449,
            0.7330606001283736,
            0.7734606338780244,
            0.47883270339435735,
            0.21783138103155827,
            -0.14633888033583817
        ],
        [
            -0.10508998725322104,
            0.07822718959102869,
            -0.20134017220816894,
            -0.058898093454938925,
            -0.12291019034811419,
            -0.7766469214556557,
            -0.3489733047199479,
            -0.18182456943330633,
            -0.1933599647104864,
            -0.06273082123852308,
            -0.010869949631045433,
            -0.11800957799459402,
            -0.5013991393093549,
            -0.10861161270127147,
            -0.36577904920395665,
            -0.27427084501735804,
            -0.07008252796630225,
            0.3684852263691994,
            0.22112248012196958,
            0.5436464409585449,
            0.7330606001283736,
            0.7734606338780244,
            0.47883270339435735,
            0.21783138103155827,
            -0.14633888033583817
        ],
        [
            -0.10508998725322104,
            0.07822718959102869,
            -0.20134017220816894,
            -0.058898093454938925,
            -0.12291019034811419,
            -0.7766469214556557,
            -0.3489733047199479,
            -0.18182456943330633,
            -0.1933599647104864,
            -0.06273082123852308,
            -0.010869949631045433,
            -0.11800957799459402,
            -0.5013991393093549,
            -0.10861161270127147,
            -0.36577904920395665,
            -0.27427084501735804,
            -0.07008252796630225,
            0.3684852263691994,
            0.22112248012196958,
            0.5436464409585449,
            0.7330606001283736,
            0.7734606338780244,
            0.47883270339435735,
            0.21783138103155827,
            -0.14633888033583817
        ],
        [
            -0.10508998725322104,
            0.07822718959102869,
            -0.20134017220816894,
            -0.058898093454938925,
            -0.12291019034811419,
            -0.7766469214556557,
            -0.3489733047199479,
            -0.18182456943330633,
            -0.1933599647104864,
            -0.06273082123852308,
            -0.010869949631045433,
            -0.11800957799459402,
            -0.5013991393093549,
            -0.10861161270127147,
            -0.36577904920395665,
            -0.27427084501735804,
            -0.07008252796630225,
            0.3684852263691994,
            0.22112248012196958,
            0.5436464409585449,
            0.7330606001283736,
            0.7734606338780244,
            0.47883270339435735,
            0.21783138103155827,
            -0.14633888033583817
        ],
        [
            -0.10508998725322104,
            0.07822718959102869,
            -0.20134017220816894,
            -0.058898093454938925,
            -0.12291019034811419,
            -0.7766469214556557,
            -0.3489733047199479,
            -0.18182456943330633,
            -0.1933599647104864,
            -0.06273082123852308,
            -0.010869949631045433,
            -0.11800957799459402,
            -0.5013991393093549,
            -0.10861161270127147,
            -0.36577904920395665,
            -0.27427084501735804,
            -0.07008252796630225,
            0.3684852263691994,
            0.22112248012196958,
            0.5436464409585449,
            0.7330606001283736,
            0.7734606338780244,
            0.47883270339435735,
            0.21783138103155827,
            -0.14633888033583817
        ],
        [
            -0.10508998725322104,
            0.07822718959102869,
            -0.20134017220816894,
            -0.058898093454938925,
            -0.12291019034811419,
            -0.7766469214556557,
            -0.3489733047199479,
            -0.18182456943330633,
            -0.1933599647104864,
            -0.06273082123852308,
            -0.010869949631045433,
            -0.11800957799459402,
            -0.5013991393093549,
            -0.10861161270127147,
            -0.36577904920395665,
            -0.27427084501735804,
            -0.07008252796630225,
            0.3684852263691994,
            0.22112248012196958,
            0.5436464409585449,
            0.7330606001283736,
            0.7734606338780244,
            0.47883270339435735,
            0.21783138103155827,
            -0.14633888033583817
        ],
        [
            -0.10508998725322104,
            0.07822718959102869,
            -0.20134017220816894,
            -0.058898093454938925,
            -0.12291019034811419,
            -0.7766469214556557,
            -0.3489733047199479,
            -0.18182456943330633,
            -0.1933599647104864,
            -0.06273082123852308,
            -0.010869949631045433,
            -0.11800957799459402,
            -0.5013991393093549,
            -0.10861161270127147,
            -0.36577904920395665,
            -0.27427084501735804,
            -0.07008252796630225,
            0.3684852263691994,
            0.22112248012196958,
            0.5436464409585449,
            0.7330606001283736,
            0.7734606338780244,
            0.47883270339435735,
            0.21783138103155827,
            -0.14633888033583817
        ],
        [
            -0.10508998725322104,
            0.07822718959102869,
            -0.20134017220816894,
            -0.058898093454938925,
            -0.12291019034811419,
            -0.7766469214556557,
            -0.3489733047199479,
            -0.18182456943330633,
            -0.1933599647104864,
            -0.06273082123852308,
            -0.010869949631045433,
            -0.11800957799459402,
            -0.5013991393093549,
            -0.10861161270127147,
            -0.36577904920395665,
            -0.27427084501735804,
            -0.07008252796630225,
            0.3684852263691994,
            0.22112248012196958,
            0.5436464409585449,
            0.7330606001283736,
            0.7734606338780244,
            0.47883270339435735,
            0.21783138103155827,
            -0.14633888033583817
        ],
        [
            -0.10508998725322104,
            0.07822718959102869,
            -0.20134017220816894,
            -0.058898093454938925,
            -0.12291019034811419,
            -0.7766469214556557,
            -0.3489733047199479,
            -0.18182456943330633,
            -0.1933599647104864,
            -0.06273082123852308,
            -0.010869949631045433,
            -0.11800957799459402,
            -0.5013991393093549,
            -0.10861161270127147,
            -0.36577904920395665,
            -0.27427084501735804,
            -0.07008252796630225,
            0.3684852263691994,
            0.22112248012196958,
            0.5436464409585449,
            0.7330606001283736,
            0.7734606338780244,
            0.47883270339435735,
            0.21783138103155827,
            -0.14633888033583817
        ],
        [
            -0.10508998725322104,
            0.07822718959102869,
            -0.20134017220816894,
            -0.058898093454938925,
            -0.12291019034811419,
            -0.7766469214556557,
            -0.3489733047199479,
            -0.18182456943330633,
            -0.1933599647104864,
            -0.06273082123852308,
            -0.010869949631045433,
            -0.11800957799459402,
            -0.5013991393093549,
            -0.10861161270127147,
            -0.36577904920395665,
            -0.27427084501735804,
            -0.07008252796630225,
            0.3684852263691994,
            0.22112248012196958,
            0.5436464409585449,
            0.7330606001283736,
            0.7734606338780244,
            0.47883270339435735,
            0.21783138103155827,
            -0.14633888033583817
        ],
        [
            -0.10508998725322104,
            0.07822718959102869,
            -0.20134017220816894,
            -0.058898093454938925,
            -0.12291019034811419,
            -0.7766469214556557,
            -0.3489733047199479,
            -0.18182456943330633,
            -0.1933599647104864,
            -0.06273082123852308,
            -0.010869949631045433,
            -0.11800957799459402,
            -0.5013991393093549,
            -0.10861161270127147,
            -0.36577904920395665,
            -0.27427084501735804,
            -0.07008252796630225,
            0.3684852263691994,
            0.22112248012196958,
            0.5436464409585449,
            0.7330606001283736,
            0.7734606338780244,
            0.47883270339435735,
            0.21783138103155827,
            -0.14633888033583817
        ],
        [
            -0.10508998725322104,
            0.07822718959102869,
            -0.20134017220816894,
            -0.058898093454938925,
            -0.12291019034811419,
            -0.7766469214556557,
            -0.3489733047199479,
            -0.18182456943330633,
            -0.1933599647104864,
            -0.06273082123852308,
            -0.010869949631045433,
            -0.11800957799459402,
            -0.5013991393093549,
            -0.10861161270127147,
            -0.36577904920395665,
            -0.27427084501735804,
            -0.07008252796630225,
            0.3684852263691994,
            0.22112248012196958,
            0.5436464409585449,
            0.7330606001283736,
            0.7734606338780244,
            0.47883270339435735,
            0.21783138103155827,
            -0.14633888033583817
        ],
        [
            -0.10508998725322104,
            0.07822718959102869,
            -0.20134017220816894,
            -0.058898093454938925,
            -0.12291019034811419,
            -0.7766469214556557,
            -0.3489733047199479,
            -0.18182456943330633,
            -0.1933599647104864,
            -0.06273082123852308,
            -0.010869949631045433,
            -0.11800957799459402,
            -0.5013991393093549,
            -0.10861161270127147,
            -0.36577904920395665,
            -0.27427084501735804,
            -0.07008252796630225,
            0.3684852263691994,
            0.22112248012196958,
            0.5436464409585449,
            0.7330606001283736,
            0.7734606338780244,
            0.47883270339435735,
            0.21783138103155827,
            -0.14633888033583817
        ],
        [
            -0.10508998725322104,
            0.07822718959102869,
            -0.20134017220816894,
            -0.058898093454938925,
            -0.12291019034811419,
            -0.7766469214556557,
            -0.3489733047199479,
            -0.18182456943330633,
            -0.1933599647104864,
            -0.06273082123852308,
            -0.010869949631045433,
            -0.11800957799459402,
            -0.5013991393093549,
            -0.10861161270127147,
            -0.36577904920395665,
            -0.27427084501735804,
            -0.07008252796630225,
            0.3684852263691994,
            0.22112248012196958,
            0.5436464409585449,
            0.7330606001283736,
            0.7734606338780244,
            0.47883270339435735,
            0.21783138103155827,
            -0.14633888033583817
        ],
        [
            -0.10508998725322104,
            0.07822718959102869,
            -0.20134017220816894,
            -0.058898093454938925,
            -0.12291019034811419,
            -0.7766469214556557,
            -0.3489733047199479,
            -0.18182456943330633,
            -0.1933599647104864,
            -0.06273082123852308,
            -0.010869949631045433,
            -0.11800957799459402,
            -0.5013991393093549,
            -0.10861161270127147,
            -0.36577904920395665,
            -0.27427084501735804,
            -0.07008252796630225,
            0.3684852263691994,
            0.22112248012196958,
            0.5436464409585449,
            0.7330606001283736,
            0.7734606338780244,
            0.47883270339435735,
            0.21783138103155827,
            -0.14633888033583817
        ],
        [
            -0.10508998725322104,
            0.07822718959102869,
            -0.20134017220816894,
            -0.058898093454938925,
            -0.12291019034811419,
            -0.7766469214556557,
            -0.3489733047199479,
            -0.18182456943330633,
            -0.1933599647104864,
            -0.06273082123852308,
            -0.010869949631045433,
            -0.11800957799459402,
            -0.5013991393093549,
            -0.10861161270127147,
            -0.36577904920395665,
            -0.27427084501735804,
            -0.07008252796630225,
            0.3684852263691994,
            0.22112248012196958,
            0.5436464409585449,
            0.7330606001283736,
            0.7734606338780244,
            0.47883270339435735,
            0.21783138103155827,
            -0.14633888033583817
        ]
    ],
    "layerBias1": [
        -0.760167153011471,
        -0.760167153011471,
        -0.760167153011471,
        -0.760167153011471,
        -0.760167153011471,
        -0.760167153011471,
        -0.760167153011471,
        -0.760167153011471,
        -0.760167153011471,
        -0.760167153011471,
        -0.760167153011471,
        -0.760167153011471,
        -0.760167153011471,
        -0.760167153011471,
        -0.760167153011471,
        -0.760167153011471,
        -0.760167153011471,
        -0.760167153011471,
        -0.760167153011471,
        -0.760167153011471,
        -0.760167153011471,
        -0.760167153011471,
        -0.760167153011471
    ],
    "layerWeights1": [
        [
            -0.31432626401366587,
            -0.31432626401366587,
            -0.31432626401366587,
            -0.31432626401366587,
            -0.31432626401366587,
            -0.31432626401366587,
            -0.31432626401366587,
            -0.31432626401366587,
            -0.31432626401366587,
            -0.31432626401366587,
            -0.31432626401366587,
            -0.31432626401366587,
            -0.31432626401366587,
            -0.31432626401366587,
            -0.31432626401366587,
            -0.31432626401366587,
            -0.31432626401366587,
            -0.31432626401366587,
            -0.31432626401366587,
            -0.31432626401366587,
            -0.31432626401366587,
            -0.31432626401366587,
            -0.31432626401366587
        ],
        [
            -0.31432626401366587,
            -0.31432626401366587,
            -0.31432626401366587,
            -0.31432626401366587,
            -0.31432626401366587,
            -0.31432626401366587,
            -0.31432626401366587,
            -0.31432626401366587,
            -0.31432626401366587,
            -0.31432626401366587,
            -0.31432626401366587,
            -0.31432626401366587,
            -0.31432626401366587,
            -0.31432626401366587,
            -0.31432626401366587,
            -0.31432626401366587,
            -0.31432626401366587,
            -0.31432626401366587,
            -0.31432626401366587,
            -0.31432626401366587,
            -0.31432626401366587,
            -0.31432626401366587,
            -0.31432626401366587
        ],
        [
            -0.31432626401366587,
            -0.31432626401366587,
            -0.31432626401366587,
            -0.31432626401366587,
            -0.31432626401366587,
            -0.31432626401366587,
            -0.31432626401366587,
            -0.31432626401366587,
            -0.31432626401366587,
            -0.31432626401366587,
            -0.31432626401366587,
            -0.31432626401366587,
            -0.31432626401366587,
            -0.31432626401366587,
            -0.31432626401366587,
            -0.31432626401366587,
            -0.31432626401366587,
            -0.31432626401366587,
            -0.31432626401366587,
            -0.31432626401366587,
            -0.31432626401366587,
            -0.31432626401366587,
            -0.31432626401366587
        ],
        [
            -0.31432626401366587,
            -0.31432626401366587,
            -0.31432626401366587,
            -0.31432626401366587,
            -0.31432626401366587,
            -0.31432626401366587,
            -0.31432626401366587,
            -0.31432626401366587,
            -0.31432626401366587,
            -0.31432626401366587,
            -0.31432626401366587,
            -0.31432626401366587,
            -0.31432626401366587,
            -0.31432626401366587,
            -0.31432626401366587,
            -0.31432626401366587,
            -0.31432626401366587,
            -0.31432626401366587,
            -0.31432626401366587,
            -0.31432626401366587,
            -0.31432626401366587,
            -0.31432626401366587,
            -0.31432626401366587
        ],
        [
            -0.31432626401366587,
            -0.31432626401366587,
            -0.31432626401366587,
            -0.31432626401366587,
            -0.31432626401366587,
            -0.31432626401366587,
            -0.31432626401366587,
            -0.31432626401366587,
            -0.31432626401366587,
            -0.31432626401366587,
            -0.31432626401366587,
            -0.31432626401366587,
            -0.31432626401366587,
            -0.31432626401366587,
            -0.31432626401366587,
            -0.31432626401366587,
            -0.31432626401366587,
            -0.31432626401366587,
            -0.31432626401366587,
            -0.31432626401366587,
            -0.31432626401366587,
            -0.31432626401366587,
            -0.31432626401366587
        ],
        [
            -0.31432626401366587,
            -0.31432626401366587,
            -0.31432626401366587,
            -0.31432626401366587,
            -0.31432626401366587,
            -0.31432626401366587,
            -0.31432626401366587,
            -0.31432626401366587,
            -0.31432626401366587,
            -0.31432626401366587,
            -0.31432626401366587,
            -0.31432626401366587,
            -0.31432626401366587,
            -0.31432626401366587,
            -0.31432626401366587,
            -0.31432626401366587,
            -0.31432626401366587,
            -0.31432626401366587,
            -0.31432626401366587,
            -0.31432626401366587,
            -0.31432626401366587,
            -0.31432626401366587,
            -0.31432626401366587
        ],
        [
            -0.31432626401366587,
            -0.31432626401366587,
            -0.31432626401366587,
            -0.31432626401366587,
            -0.31432626401366587,
            -0.31432626401366587,
            -0.31432626401366587,
            -0.31432626401366587,
            -0.31432626401366587,
            -0.31432626401366587,
            -0.31432626401366587,
            -0.31432626401366587,
            -0.31432626401366587,
            -0.31432626401366587,
            -0.31432626401366587,
            -0.31432626401366587,
            -0.31432626401366587,
            -0.31432626401366587,
            -0.31432626401366587,
            -0.31432626401366587,
            -0.31432626401366587,
            -0.31432626401366587,
            -0.31432626401366587
        ],
        [
            -0.31432626401366587,
            -0.31432626401366587,
            -0.31432626401366587,
            -0.31432626401366587,
            -0.31432626401366587,
            -0.31432626401366587,
            -0.31432626401366587,
            -0.31432626401366587,
            -0.31432626401366587,
            -0.31432626401366587,
            -0.31432626401366587,
            -0.31432626401366587,
            -0.31432626401366587,
            -0.31432626401366587,
            -0.31432626401366587,
            -0.31432626401366587,
            -0.31432626401366587,
            -0.31432626401366587,
            -0.31432626401366587,
            -0.31432626401366587,
            -0.31432626401366587,
            -0.31432626401366587,
            -0.31432626401366587
        ],
        [
            -0.31432626401366587,
            -0.31432626401366587,
            -0.31432626401366587,
            -0.31432626401366587,
            -0.31432626401366587,
            -0.31432626401366587,
            -0.31432626401366587,
            -0.31432626401366587,
            -0.31432626401366587,
            -0.31432626401366587,
            -0.31432626401366587,
            -0.31432626401366587,
            -0.31432626401366587,
            -0.31432626401366587,
            -0.31432626401366587,
            -0.31432626401366587,
            -0.31432626401366587,
            -0.31432626401366587,
            -0.31432626401366587,
            -0.31432626401366587,
            -0.31432626401366587,
            -0.31432626401366587,
            -0.31432626401366587
        ],
        [
            -0.31432626401366587,
            -0.31432626401366587,
            -0.31432626401366587,
            -0.31432626401366587,
            -0.31432626401366587,
            -0.31432626401366587,
            -0.31432626401366587,
            -0.31432626401366587,
            -0.31432626401366587,
            -0.31432626401366587,
            -0.31432626401366587,
            -0.31432626401366587,
            -0.31432626401366587,
            -0.31432626401366587,
            -0.31432626401366587,
            -0.31432626401366587,
            -0.31432626401366587,
            -0.31432626401366587,
            -0.31432626401366587,
            -0.31432626401366587,
            -0.31432626401366587,
            -0.31432626401366587,
            -0.31432626401366587
        ],
        [
            -0.31432626401366587,
            -0.31432626401366587,
            -0.31432626401366587,
            -0.31432626401366587,
            -0.31432626401366587,
            -0.31432626401366587,
            -0.31432626401366587,
            -0.31432626401366587,
            -0.31432626401366587,
            -0.31432626401366587,
            -0.31432626401366587,
            -0.31432626401366587,
            -0.31432626401366587,
            -0.31432626401366587,
            -0.31432626401366587,
            -0.31432626401366587,
            -0.31432626401366587,
            -0.31432626401366587,
            -0.31432626401366587,
            -0.31432626401366587,
            -0.31432626401366587,
            -0.31432626401366587,
            -0.31432626401366587
        ],
        [
            -0.31432626401366587,
            -0.31432626401366587,
            -0.31432626401366587,
            -0.31432626401366587,
            -0.31432626401366587,
            -0.31432626401366587,
            -0.31432626401366587,
            -0.31432626401366587,
            -0.31432626401366587,
            -0.31432626401366587,
            -0.31432626401366587,
            -0.31432626401366587,
            -0.31432626401366587,
            -0.31432626401366587,
            -0.31432626401366587,
            -0.31432626401366587,
            -0.31432626401366587,
            -0.31432626401366587,
            -0.31432626401366587,
            -0.31432626401366587,
            -0.31432626401366587,
            -0.31432626401366587,
            -0.31432626401366587
        ],
        [
            -0.31432626401366587,
            -0.31432626401366587,
            -0.31432626401366587,
            -0.31432626401366587,
            -0.31432626401366587,
            -0.31432626401366587,
            -0.31432626401366587,
            -0.31432626401366587,
            -0.31432626401366587,
            -0.31432626401366587,
            -0.31432626401366587,
            -0.31432626401366587,
            -0.31432626401366587,
            -0.31432626401366587,
            -0.31432626401366587,
            -0.31432626401366587,
            -0.31432626401366587,
            -0.31432626401366587,
            -0.31432626401366587,
            -0.31432626401366587,
            -0.31432626401366587,
            -0.31432626401366587,
            -0.31432626401366587
        ],
        [
            -0.31432626401366587,
            -0.31432626401366587,
            -0.31432626401366587,
            -0.31432626401366587,
            -0.31432626401366587,
            -0.31432626401366587,
            -0.31432626401366587,
            -0.31432626401366587,
            -0.31432626401366587,
            -0.31432626401366587,
            -0.31432626401366587,
            -0.31432626401366587,
            -0.31432626401366587,
            -0.31432626401366587,
            -0.31432626401366587,
            -0.31432626401366587,
            -0.31432626401366587,
            -0.31432626401366587,
            -0.31432626401366587,
            -0.31432626401366587,
            -0.31432626401366587,
            -0.31432626401366587,
            -0.31432626401366587
        ],
        [
            -0.31432626401366587,
            -0.31432626401366587,
            -0.31432626401366587,
            -0.31432626401366587,
            -0.31432626401366587,
            -0.31432626401366587,
            -0.31432626401366587,
            -0.31432626401366587,
            -0.31432626401366587,
            -0.31432626401366587,
            -0.31432626401366587,
            -0.31432626401366587,
            -0.31432626401366587,
            -0.31432626401366587,
            -0.31432626401366587,
            -0.31432626401366587,
            -0.31432626401366587,
            -0.31432626401366587,
            -0.31432626401366587,
            -0.31432626401366587,
            -0.31432626401366587,
            -0.31432626401366587,
            -0.31432626401366587
        ],
        [
            -0.31432626401366587,
            -0.31432626401366587,
            -0.31432626401366587,
            -0.31432626401366587,
            -0.31432626401366587,
            -0.31432626401366587,
            -0.31432626401366587,
            -0.31432626401366587,
            -0.31432626401366587,
            -0.31432626401366587,
            -0.31432626401366587,
            -0.31432626401366587,
            -0.31432626401366587,
            -0.31432626401366587,
            -0.31432626401366587,
            -0.31432626401366587,
            -0.31432626401366587,
            -0.31432626401366587,
            -0.31432626401366587,
            -0.31432626401366587,
            -0.31432626401366587,
            -0.31432626401366587,
            -0.31432626401366587
        ],
        [
            -0.31432626401366587,
            -0.31432626401366587,
            -0.31432626401366587,
            -0.31432626401366587,
            -0.31432626401366587,
            -0.31432626401366587,
            -0.31432626401366587,
            -0.31432626401366587,
            -0.31432626401366587,
            -0.31432626401366587,
            -0.31432626401366587,
            -0.31432626401366587,
            -0.31432626401366587,
            -0.31432626401366587,
            -0.31432626401366587,
            -0.31432626401366587,
            -0.31432626401366587,
            -0.31432626401366587,
            -0.31432626401366587,
            -0.31432626401366587,
            -0.31432626401366587,
            -0.31432626401366587,
            -0.31432626401366587
        ]
    ],
    "layerBias2": [
        1.361231606853363,
        1.361231606853363,
        1.361231606853363,
        1.361231606853363,
        1.361231606853363,
        1.361231606853363,
        1.361231606853363,
        1.361231606853363,
        1.361231606853363,
        1.361231606853363,
        1.361231606853363,
        1.361231606853363,
        1.361231606853363,
        1.361231606853363,
        1.361231606853363,
        1.361231606853363,
        1.361231606853363
    ],
    "layerWeights2": [
        [
            -0.02053983917235312,
            -0.02053983917235312,
            -0.02053983917235312,
            -0.02053983917235312,
            -0.02053983917235312,
            -0.02053983917235312,
            -0.02053983917235312,
            -0.02053983917235312,
            -0.02053983917235312,
            -0.02053983917235312,
            -0.02053983917235312,
            -0.02053983917235312,
            -0.02053983917235312,
            -0.02053983917235312,
            -0.02053983917235312,
            -0.02053983917235312,
            -0.02053983917235312
        ],
        [
            0.0775886460514134,
            0.0775886460514134,
            0.0775886460514134,
            0.0775886460514134,
            0.0775886460514134,
            0.0775886460514134,
            0.0775886460514134,
            0.0775886460514134,
            0.0775886460514134,
            0.0775886460514134,
            0.0775886460514134,
            0.0775886460514134,
            0.0775886460514134,
            0.0775886460514134,
            0.0775886460514134,
            0.0775886460514134,
            0.0775886460514134
        ],
        [
            -0.13068569065526117,
            -0.13068569065526117,
            -0.13068569065526117,
            -0.13068569065526117,
            -0.13068569065526117,
            -0.13068569065526117,
            -0.13068569065526117,
            -0.13068569065526117,
            -0.13068569065526117,
            -0.13068569065526117,
            -0.13068569065526117,
            -0.13068569065526117,
            -0.13068569065526117,
            -0.13068569065526117,
            -0.13068569065526117,
            -0.13068569065526117,
            -0.13068569065526117
        ],
        [
            -2.9756379614654533,
            -2.9756379614654533,
            -2.9756379614654533,
            -2.9756379614654533,
            -2.9756379614654533,
            -2.9756379614654533,
            -2.9756379614654533,
            -2.9756379614654533,
            -2.9756379614654533,
            -2.9756379614654533,
            -2.9756379614654533,
            -2.9756379614654533,
            -2.9756379614654533,
            -2.9756379614654533,
            -2.9756379614654533,
            -2.9756379614654533,
            -2.9756379614654533
        ],
        [
            1.252131747006461,
            1.252131747006461,
            1.252131747006461,
            1.252131747006461,
            1.252131747006461,
            1.252131747006461,
            1.252131747006461,
            1.252131747006461,
            1.252131747006461,
            1.252131747006461,
            1.252131747006461,
            1.252131747006461,
            1.252131747006461,
            1.252131747006461,
            1.252131747006461,
            1.252131747006461,
            1.252131747006461
        ],
        [
            -0.10257154863486861,
            -0.10257154863486861,
            -0.10257154863486861,
            -0.10257154863486861,
            -0.10257154863486861,
            -0.10257154863486861,
            -0.10257154863486861,
            -0.10257154863486861,
            -0.10257154863486861,
            -0.10257154863486861,
            -0.10257154863486861,
            -0.10257154863486861,
            -0.10257154863486861,
            -0.10257154863486861,
            -0.10257154863486861,
            -0.10257154863486861,
            -0.10257154863486861
        ],
        [
            -0.0392857080095545,
            -0.0392857080095545,
            -0.0392857080095545,
            -0.0392857080095545,
            -0.0392857080095545,
            -0.0392857080095545,
            -0.0392857080095545,
            -0.0392857080095545,
            -0.0392857080095545,
            -0.0392857080095545,
            -0.0392857080095545,
            -0.0392857080095545,
            -0.0392857080095545,
            -0.0392857080095545,
            -0.0392857080095545,
            -0.0392857080095545,
            -0.0392857080095545
        ],
        [
            0.06198534055327012,
            0.06198534055327012,
            0.06198534055327012,
            0.06198534055327012,
            0.06198534055327012,
            0.06198534055327012,
            0.06198534055327012,
            0.06198534055327012,
            0.06198534055327012,
            0.06198534055327012,
            0.06198534055327012,
            0.06198534055327012,
            0.06198534055327012,
            0.06198534055327012,
            0.06198534055327012,
            0.06198534055327012,
            0.06198534055327012
        ],
        [
            -0.03166232261498928,
            -0.03166232261498928,
            -0.03166232261498928,
            -0.03166232261498928,
            -0.03166232261498928,
            -0.03166232261498928,
            -0.03166232261498928,
            -0.03166232261498928,
            -0.03166232261498928,
            -0.03166232261498928,
            -0.03166232261498928,
            -0.03166232261498928,
            -0.03166232261498928,
            -0.03166232261498928,
            -0.03166232261498928,
            -0.03166232261498928,
            -0.03166232261498928
        ],
        [
            -0.07435953675918093,
            -0.07435953675918093,
            -0.07435953675918093,
            -0.07435953675918093,
            -0.07435953675918093,
            -0.07435953675918093,
            -0.07435953675918093,
            -0.07435953675918093,
            -0.07435953675918093,
            -0.07435953675918093,
            -0.07435953675918093,
            -0.07435953675918093,
            -0.07435953675918093,
            -0.07435953675918093,
            -0.07435953675918093,
            -0.07435953675918093,
            -0.07435953675918093
        ]
    ],
    "layerBiasEnd": [
        -2.1077307286362466,
        -2.652311093577162,
        -1.6016803138697056,
        3.931069328548189,
        -11.093679713168491,
        -1.8119111914556574,
        -2.081203539081277,
        -2.4355670829772054,
        -2.0362480218747967,
        -1.8806754293031105
    ]
}